<?xml version="1.0"?>
<opencv_storage>
<cascade>
  <stageType>BOOST</stageType>
  <featureType>HAAR</featureType>
  <height>40</height>
  <width>40</width>
  <stageParams>
    <boostType>GAB</boostType>
    <minHitRate>9.9500000476837158e-01</minHitRate>
    <maxFalseAlarm>5.0000000000000000e-01</maxFalseAlarm>
    <weightTrimRate>9.4999998807907104e-01</weightTrimRate>
    <maxDepth>1</maxDepth>
    <maxWeakCount>100</maxWeakCount></stageParams>
  <featureParams>
    <maxCatCount>0</maxCatCount>
    <featSize>1</featSize>
    <mode>BASIC</mode></featureParams>
  <stageNum>5</stageNum>
  <stages>
    <!-- stage 0 -->
    <_>
      <maxWeakCount>5</maxWeakCount>
      <stageThreshold>-1.6115547418594360e+00</stageThreshold>
      <weakClassifiers>
        <_>
          <internalNodes>
            0 -1 16 -4.6355421654880047e-03</internalNodes>
          <leafValues>
            2.2222222387790680e-01 -8.7108016014099121e-01</leafValues></_>
        <_>
          <internalNodes>
            0 -1 10 1.4112941920757294e-02</internalNodes>
          <leafValues>
            -6.1838954687118530e-01 3.9247539639472961e-01</leafValues></_>
        <_>
          <internalNodes>
            0 -1 11 3.6456412635743618e-03</internalNodes>
          <leafValues>
            2.4929258227348328e-01 -9.5555239915847778e-01</leafValues></_>
        <_>
          <internalNodes>
            0 -1 18 7.0296856574714184e-04</internalNodes>
          <leafValues>
            -5.0615048408508301e-01 5.0856888294219971e-01</leafValues></_>
        <_>
          <internalNodes>
            0 -1 7 -4.4466573745012283e-02</internalNodes>
          <leafValues>
            -8.7994652986526489e-01 3.5880067944526672e-01</leafValues></_></weakClassifiers></_>
    <!-- stage 1 -->
    <_>
      <maxWeakCount>5</maxWeakCount>
      <stageThreshold>-1.6120314598083496e+00</stageThreshold>
      <weakClassifiers>
        <_>
          <internalNodes>
            0 -1 2 2.4459278210997581e-03</internalNodes>
          <leafValues>
            -8.6896550655364990e-01 6.6666668653488159e-01</leafValues></_>
        <_>
          <internalNodes>
            0 -1 12 4.9877269193530083e-03</internalNodes>
          <leafValues>
            -9.5787666738033295e-02 -9.5233148336410522e-01</leafValues></_>
        <_>
          <internalNodes>
            0 -1 5 -4.8594116233289242e-03</internalNodes>
          <leafValues>
            2.8703200817108154e-01 -6.0632723569869995e-01</leafValues></_>
        <_>
          <internalNodes>
            0 -1 20 1.9041066989302635e-03</internalNodes>
          <leafValues>
            -3.9992979168891907e-01 6.0105454921722412e-01</leafValues></_>
        <_>
          <internalNodes>
            0 -1 1 1.5368657477665693e-04</internalNodes>
          <leafValues>
            -5.3438049554824829e-01 4.8848086595535278e-01</leafValues></_></weakClassifiers></_>
    <!-- stage 2 -->
    <_>
      <maxWeakCount>5</maxWeakCount>
      <stageThreshold>-1.2210036516189575e+00</stageThreshold>
      <weakClassifiers>
        <_>
          <internalNodes>
            0 -1 19 -4.9359053373336792e-03</internalNodes>
          <leafValues>
            1. -8.8235294818878174e-01</leafValues></_>
        <_>
          <internalNodes>
            0 -1 17 -6.5623321570456028e-03</internalNodes>
          <leafValues>
            5.6988406181335449e-01 -6.4828920364379883e-01</leafValues></_>
        <_>
          <internalNodes>
            0 -1 4 -1.4598879031836987e-02</internalNodes>
          <leafValues>
            6.9009190797805786e-01 -4.8307573795318604e-01</leafValues></_>
        <_>
          <internalNodes>
            0 -1 8 -3.4179862122982740e-03</internalNodes>
          <leafValues>
            -6.6983002424240112e-01 4.6447798609733582e-01</leafValues></_>
        <_>
          <internalNodes>
            0 -1 9 -4.3920800089836121e-04</internalNodes>
          <leafValues>
            -8.8993704319000244e-01 3.4197890758514404e-01</leafValues></_></weakClassifiers></_>
    <!-- stage 3 -->
    <_>
      <maxWeakCount>4</maxWeakCount>
      <stageThreshold>-1.8851308822631836e+00</stageThreshold>
      <weakClassifiers>
        <_>
          <internalNodes>
            0 -1 3 2.9999595135450363e-02</internalNodes>
          <leafValues>
            -9.1887122392654419e-01 1.</leafValues></_>
        <_>
          <internalNodes>
            0 -1 14 -1.5419386327266693e-02</internalNodes>
          <leafValues>
            1. -8.1169962882995605e-01</leafValues></_>
        <_>
          <internalNodes>
            0 -1 15 -5.4332733270712197e-05</internalNodes>
          <leafValues>
            8.7111157178878784e-01 -7.0324254035949707e-01</leafValues></_>
        <_>
          <internalNodes>
            0 -1 13 1.2598866596817970e-03</internalNodes>
          <leafValues>
            5.4868251085281372e-01 -9.6828991174697876e-01</leafValues></_></weakClassifiers></_>
    <!-- stage 4 -->
    <_>
      <maxWeakCount>2</maxWeakCount>
      <stageThreshold>2.5408348068594933e-02</stageThreshold>
      <weakClassifiers>
        <_>
          <internalNodes>
            0 -1 0 -5.4283097386360168e-02</internalNodes>
          <leafValues>
            -9.7459167242050171e-01 1.</leafValues></_>
        <_>
          <internalNodes>
            0 -1 6 3.1018606387078762e-04</internalNodes>
          <leafValues>
            1. -9.5789468288421631e-01</leafValues></_></weakClassifiers></_></stages>
  <features>
    <_>
      <rects>
        <_>
          0 3 27 26 -1.</_>
        <_>
          0 16 27 13 2.</_></rects>
      <tilted>0</tilted></_>
    <_>
      <rects>
        <_>
          0 33 6 3 -1.</_>
        <_>
          2 33 2 3 3.</_></rects>
      <tilted>0</tilted></_>
    <_>
      <rects>
        <_>
          2 33 3 3 -1.</_>
        <_>
          3 33 1 3 3.</_></rects>
      <tilted>0</tilted></_>
    <_>
      <rects>
        <_>
          3 1 12 21 -1.</_>
        <_>
          3 8 12 7 3.</_></rects>
      <tilted>0</tilted></_>
    <_>
      <rects>
        <_>
          3 16 7 16 -1.</_>
        <_>
          3 24 7 8 2.</_></rects>
      <tilted>0</tilted></_>
    <_>
      <rects>
        <_>
          6 11 32 16 -1.</_>
        <_>
          6 19 32 8 2.</_></rects>
      <tilted>0</tilted></_>
    <_>
      <rects>
        <_>
          8 4 7 3 -1.</_>
        <_>
          8 5 7 1 3.</_></rects>
      <tilted>0</tilted></_>
    <_>
      <rects>
        <_>
          9 0 22 30 -1.</_>
        <_>
          9 15 22 15 2.</_></rects>
      <tilted>0</tilted></_>
    <_>
      <rects>
        <_>
          9 17 8 16 -1.</_>
        <_>
          13 17 4 16 2.</_></rects>
      <tilted>0</tilted></_>
    <_>
      <rects>
        <_>
          10 27 8 2 -1.</_>
        <_>
          10 27 4 1 2.</_>
        <_>
          14 28 4 1 2.</_></rects>
      <tilted>0</tilted></_>
    <_>
      <rects>
        <_>
          12 0 3 14 -1.</_>
        <_>
          12 7 3 7 2.</_></rects>
      <tilted>0</tilted></_>
    <_>
      <rects>
        <_>
          16 6 11 27 -1.</_>
        <_>
          16 15 11 9 3.</_></rects>
      <tilted>0</tilted></_>
    <_>
      <rects>
        <_>
          17 2 11 26 -1.</_>
        <_>
          17 15 11 13 2.</_></rects>
      <tilted>0</tilted></_>
    <_>
      <rects>
        <_>
          18 14 6 3 -1.</_>
        <_>
          18 15 6 1 3.</_></rects>
      <tilted>0</tilted></_>
    <_>
      <rects>
        <_>
          27 18 13 18 -1.</_>
        <_>
          27 24 13 6 3.</_></rects>
      <tilted>0</tilted></_>
    <_>
      <rects>
        <_>
          28 4 3 32 -1.</_>
        <_>
          29 4 1 32 3.</_></rects>
      <tilted>0</tilted></_>
    <_>
      <rects>
        <_>
          30 23 2 10 -1.</_>
        <_>
          30 23 1 5 2.</_>
        <_>
          31 28 1 5 2.</_></rects>
      <tilted>0</tilted></_>
    <_>
      <rects>
        <_>
          32 13 4 10 -1.</_>
        <_>
          32 13 2 5 2.</_>
        <_>
          34 18 2 5 2.</_></rects>
      <tilted>0</tilted></_>
    <_>
      <rects>
        <_>
          33 36 6 1 -1.</_>
        <_>
          35 36 2 1 3.</_></rects>
      <tilted>0</tilted></_>
    <_>
      <rects>
        <_>
          34 25 4 5 -1.</_>
        <_>
          36 25 2 5 2.</_></rects>
      <tilted>0</tilted></_>
    <_>
      <rects>
        <_>
          36 7 2 20 -1.</_>
        <_>
          36 7 1 10 2.</_>
        <_>
          37 17 1 10 2.</_></rects>
      <tilted>0</tilted></_></features></cascade>
</opencv_storage>
