<?xml version="1.0"?>
<opencv_storage>
<cascade>
  <stageType>BOOST</stageType>
  <featureType>HAAR</featureType>
  <height>40</height>
  <width>40</width>
  <stageParams>
    <boostType>GAB</boostType>
    <minHitRate>9.9500000476837158e-01</minHitRate>
    <maxFalseAlarm>5.0000000000000000e-01</maxFalseAlarm>
    <weightTrimRate>9.4999998807907104e-01</weightTrimRate>
    <maxDepth>1</maxDepth>
    <maxWeakCount>100</maxWeakCount></stageParams>
  <featureParams>
    <maxCatCount>0</maxCatCount>
    <featSize>1</featSize>
    <mode>BASIC</mode></featureParams>
  <stageNum>6</stageNum>
  <stages>
    <!-- stage 0 -->
    <_>
      <maxWeakCount>4</maxWeakCount>
      <stageThreshold>-1.1215744018554688e+00</stageThreshold>
      <weakClassifiers>
        <_>
          <internalNodes>
            0 -1 5 3.8804043084383011e-02</internalNodes>
          <leafValues>
            -8.8020831346511841e-01 3.1730768084526062e-01</leafValues></_>
        <_>
          <internalNodes>
            0 -1 12 9.0603172779083252e-02</internalNodes>
          <leafValues>
            -5.6700569391250610e-01 5.7019430398941040e-01</leafValues></_>
        <_>
          <internalNodes>
            0 -1 9 -4.5797541737556458e-02</internalNodes>
          <leafValues>
            -8.3932203054428101e-01 2.0210917294025421e-01</leafValues></_>
        <_>
          <internalNodes>
            0 -1 13 -5.1605477929115295e-02</internalNodes>
          <leafValues>
            -1. 1.2353046983480453e-01</leafValues></_></weakClassifiers></_>
    <!-- stage 1 -->
    <_>
      <maxWeakCount>7</maxWeakCount>
      <stageThreshold>-9.5488399267196655e-01</stageThreshold>
      <weakClassifiers>
        <_>
          <internalNodes>
            0 -1 3 1.9210022687911987e-01</internalNodes>
          <leafValues>
            -6.3706564903259277e-01 7.8378379344940186e-01</leafValues></_>
        <_>
          <internalNodes>
            0 -1 14 6.8067282438278198e-02</internalNodes>
          <leafValues>
            -5.0130820274353027e-01 4.5570182800292969e-01</leafValues></_>
        <_>
          <internalNodes>
            0 -1 16 2.1439380943775177e-02</internalNodes>
          <leafValues>
            -3.3311963081359863e-01 6.8155688047409058e-01</leafValues></_>
        <_>
          <internalNodes>
            0 -1 15 1.1229824274778366e-02</internalNodes>
          <leafValues>
            -2.1873329579830170e-01 7.0386022329330444e-01</leafValues></_>
        <_>
          <internalNodes>
            0 -1 7 -1.5003288164734840e-02</internalNodes>
          <leafValues>
            8.6724871397018433e-01 -1.7888557910919189e-01</leafValues></_>
        <_>
          <internalNodes>
            0 -1 17 1.5032104216516018e-02</internalNodes>
          <leafValues>
            -2.6468130946159363e-01 6.4157867431640625e-01</leafValues></_>
        <_>
          <internalNodes>
            0 -1 24 4.0842066518962383e-03</internalNodes>
          <leafValues>
            2.7264964580535889e-01 -6.7756032943725586e-01</leafValues></_></weakClassifiers></_>
    <!-- stage 2 -->
    <_>
      <maxWeakCount>6</maxWeakCount>
      <stageThreshold>-1.1304838657379150e+00</stageThreshold>
      <weakClassifiers>
        <_>
          <internalNodes>
            0 -1 20 -1.0138451308012009e-01</internalNodes>
          <leafValues>
            1. -6.0296845436096191e-01</leafValues></_>
        <_>
          <internalNodes>
            0 -1 6 2.1308436989784241e-02</internalNodes>
          <leafValues>
            -5.7481449842453003e-01 4.6329447627067566e-01</leafValues></_>
        <_>
          <internalNodes>
            0 -1 1 2.9650405049324036e-03</internalNodes>
          <leafValues>
            3.4219607710838318e-01 -7.0511537790298462e-01</leafValues></_>
        <_>
          <internalNodes>
            0 -1 4 1.8252782523632050e-02</internalNodes>
          <leafValues>
            3.2576075196266174e-01 -7.3893016576766968e-01</leafValues></_>
        <_>
          <internalNodes>
            0 -1 8 1.1218171566724777e-02</internalNodes>
          <leafValues>
            -3.5399350523948669e-01 8.8254392147064209e-01</leafValues></_>
        <_>
          <internalNodes>
            0 -1 19 -8.6483024060726166e-03</internalNodes>
          <leafValues>
            1. -2.4008223414421082e-01</leafValues></_></weakClassifiers></_>
    <!-- stage 3 -->
    <_>
      <maxWeakCount>5</maxWeakCount>
      <stageThreshold>-7.9898601770401001e-01</stageThreshold>
      <weakClassifiers>
        <_>
          <internalNodes>
            0 -1 18 1.5102817676961422e-02</internalNodes>
          <leafValues>
            -6.5517240762710571e-01 1.</leafValues></_>
        <_>
          <internalNodes>
            0 -1 10 -4.6786316670477390e-04</internalNodes>
          <leafValues>
            -4.0558719635009766e-01 8.5671508312225342e-01</leafValues></_>
        <_>
          <internalNodes>
            0 -1 22 -9.7092380747199059e-03</internalNodes>
          <leafValues>
            -7.6840746402740479e-01 4.2622384428977966e-01</leafValues></_>
        <_>
          <internalNodes>
            0 -1 21 -7.0670563727617264e-03</internalNodes>
          <leafValues>
            -7.1666604280471802e-01 4.6937665343284607e-01</leafValues></_>
        <_>
          <internalNodes>
            0 -1 25 -4.3696295469999313e-03</internalNodes>
          <leafValues>
            -6.3382691144943237e-01 6.2188416719436646e-01</leafValues></_></weakClassifiers></_>
    <!-- stage 4 -->
    <_>
      <maxWeakCount>3</maxWeakCount>
      <stageThreshold>-8.5084617137908936e-01</stageThreshold>
      <weakClassifiers>
        <_>
          <internalNodes>
            0 -1 11 -8.0500319600105286e-03</internalNodes>
          <leafValues>
            -8.8235294818878174e-01 1.</leafValues></_>
        <_>
          <internalNodes>
            0 -1 23 -7.1253776550292969e-03</internalNodes>
          <leafValues>
            -7.4282068014144897e-01 1.</leafValues></_>
        <_>
          <internalNodes>
            0 -1 2 -4.1957225650548935e-02</internalNodes>
          <leafValues>
            -8.9421552419662476e-01 7.7432745695114136e-01</leafValues></_></weakClassifiers></_>
    <!-- stage 5 -->
    <_>
      <maxWeakCount>1</maxWeakCount>
      <stageThreshold>1.</stageThreshold>
      <weakClassifiers>
        <_>
          <internalNodes>
            0 -1 0 6.9187246263027191e-03</internalNodes>
          <leafValues>
            1. -1.</leafValues></_></weakClassifiers></_></stages>
  <features>
    <_>
      <rects>
        <_>
          0 0 1 16 -1.</_>
        <_>
          0 8 1 8 2.</_></rects>
      <tilted>0</tilted></_>
    <_>
      <rects>
        <_>
          0 1 8 6 -1.</_>
        <_>
          0 4 8 3 2.</_></rects>
      <tilted>0</tilted></_>
    <_>
      <rects>
        <_>
          0 7 26 21 -1.</_>
        <_>
          0 14 26 7 3.</_></rects>
      <tilted>0</tilted></_>
    <_>
      <rects>
        <_>
          0 12 39 21 -1.</_>
        <_>
          13 12 13 21 3.</_></rects>
      <tilted>0</tilted></_>
    <_>
      <rects>
        <_>
          0 30 18 9 -1.</_>
        <_>
          6 30 6 9 3.</_></rects>
      <tilted>0</tilted></_>
    <_>
      <rects>
        <_>
          1 14 36 11 -1.</_>
        <_>
          13 14 12 11 3.</_></rects>
      <tilted>0</tilted></_>
    <_>
      <rects>
        <_>
          1 19 24 14 -1.</_>
        <_>
          13 19 12 14 2.</_></rects>
      <tilted>0</tilted></_>
    <_>
      <rects>
        <_>
          2 20 23 6 -1.</_>
        <_>
          2 22 23 2 3.</_></rects>
      <tilted>0</tilted></_>
    <_>
      <rects>
        <_>
          4 15 8 18 -1.</_>
        <_>
          8 15 4 18 2.</_></rects>
      <tilted>0</tilted></_>
    <_>
      <rects>
        <_>
          7 17 33 16 -1.</_>
        <_>
          18 17 11 16 3.</_></rects>
      <tilted>0</tilted></_>
    <_>
      <rects>
        <_>
          8 26 14 6 -1.</_>
        <_>
          8 26 7 3 2.</_>
        <_>
          15 29 7 3 2.</_></rects>
      <tilted>0</tilted></_>
    <_>
      <rects>
        <_>
          10 2 7 36 -1.</_>
        <_>
          10 14 7 12 3.</_></rects>
      <tilted>0</tilted></_>
    <_>
      <rects>
        <_>
          11 3 19 36 -1.</_>
        <_>
          11 15 19 12 3.</_></rects>
      <tilted>0</tilted></_>
    <_>
      <rects>
        <_>
          12 1 14 36 -1.</_>
        <_>
          12 13 14 12 3.</_></rects>
      <tilted>0</tilted></_>
    <_>
      <rects>
        <_>
          13 3 15 36 -1.</_>
        <_>
          13 15 15 12 3.</_></rects>
      <tilted>0</tilted></_>
    <_>
      <rects>
        <_>
          15 1 1 36 -1.</_>
        <_>
          15 13 1 12 3.</_></rects>
      <tilted>0</tilted></_>
    <_>
      <rects>
        <_>
          15 16 9 15 -1.</_>
        <_>
          18 16 3 15 3.</_></rects>
      <tilted>0</tilted></_>
    <_>
      <rects>
        <_>
          17 13 12 8 -1.</_>
        <_>
          21 13 4 8 3.</_></rects>
      <tilted>0</tilted></_>
    <_>
      <rects>
        <_>
          18 7 10 15 -1.</_>
        <_>
          18 12 10 5 3.</_></rects>
      <tilted>0</tilted></_>
    <_>
      <rects>
        <_>
          18 24 12 6 -1.</_>
        <_>
          18 26 12 2 3.</_></rects>
      <tilted>0</tilted></_>
    <_>
      <rects>
        <_>
          19 2 18 30 -1.</_>
        <_>
          28 2 9 30 2.</_></rects>
      <tilted>0</tilted></_>
    <_>
      <rects>
        <_>
          23 24 8 16 -1.</_>
        <_>
          23 24 4 8 2.</_>
        <_>
          27 32 4 8 2.</_></rects>
      <tilted>0</tilted></_>
    <_>
      <rects>
        <_>
          26 29 14 10 -1.</_>
        <_>
          26 29 7 5 2.</_>
        <_>
          33 34 7 5 2.</_></rects>
      <tilted>0</tilted></_>
    <_>
      <rects>
        <_>
          35 7 5 24 -1.</_>
        <_>
          35 15 5 8 3.</_></rects>
      <tilted>0</tilted></_>
    <_>
      <rects>
        <_>
          36 5 4 12 -1.</_>
        <_>
          36 9 4 4 3.</_></rects>
      <tilted>0</tilted></_>
    <_>
      <rects>
        <_>
          37 13 3 21 -1.</_>
        <_>
          37 20 3 7 3.</_></rects>
      <tilted>0</tilted></_></features></cascade>
</opencv_storage>
